<?xml version="1.0"?>
<opencv_storage>
<stage1>
  <maxWeakCount>18</maxWeakCount>
  <stageThreshold>-1.7148073911666870e+00</stageThreshold>
  <weakClassifiers>
    <_>
      <internalNodes>
        0 -1 44526 -5.6644007563591003e-02</internalNodes>
      <leafValues>
        -7.8059071302413940e-01 3.2598713040351868e-01</leafValues></_>
    <_>
      <internalNodes>
        0 -1 73125 2.0580295473337173e-02</internalNodes>
      <leafValues>
        -5.6398802995681763e-01 3.6856660246849060e-01</leafValues></_>
    <_>
      <internalNodes>
        0 -1 118 -8.9786155149340630e-03</internalNodes>
      <leafValues>
        3.4168556332588196e-01 -5.4971015453338623e-01</leafValues></_>
    <_>
      <internalNodes>
        0 -1 22299 -7.8546479344367981e-03</internalNodes>
      <leafValues>
        5.3179895877838135e-01 -2.6630252599716187e-01</leafValues></_>
    <_>
      <internalNodes>
        0 -1 59799 -3.1249555945396423e-01</internalNodes>
      <leafValues>
        -8.0769711732864380e-01 1.7853769659996033e-01</leafValues></_>
    <_>
      <internalNodes>
        0 -1 7601 9.9761914461851120e-03</internalNodes>
      <leafValues>
        -2.6458966732025146e-01 3.9425209164619446e-01</leafValues></_>
    <_>
      <internalNodes>
        0 -1 2964 5.7246051728725433e-02</internalNodes>
      <leafValues>
        -1.9551125168800354e-01 5.1789224147796631e-01</leafValues></_>
    <_>
      <internalNodes>
        0 -1 27659 -1.2298191431909800e-03</internalNodes>
      <leafValues>
        1.0509765893220901e-01 -9.8111367225646973e-01</leafValues></_>
    <_>
      <internalNodes>
        0 -1 54070 2.4995352141559124e-03</internalNodes>
      <leafValues>
        1.0476928949356079e-01 -5.7138675451278687e-01</leafValues></_>
    <_>
      <internalNodes>
        0 -1 45866 -2.9918947257101536e-03</internalNodes>
      <leafValues>
        4.2278206348419189e-01 -1.7512659728527069e-01</leafValues></_>
    <_>
      <internalNodes>
        0 -1 28122 2.3256626445800066e-03</internalNodes>
      <leafValues>
        -1.3628672063350677e-01 5.2546453475952148e-01</leafValues></_>
    <_>
      <internalNodes>
        0 -1 57821 -7.3080894071608782e-04</internalNodes>
      <leafValues>
        -3.9853331446647644e-01 2.0389120280742645e-01</leafValues></_>
    <_>
      <internalNodes>
        0 -1 72938 -1.0343970730900764e-02</internalNodes>
      <leafValues>
        -6.5008211135864258e-01 9.7273409366607666e-02</leafValues></_>
    <_>
      <internalNodes>
        0 -1 64 -4.9716727808117867e-03</internalNodes>
      <leafValues>
        2.6853108406066895e-01 -2.7198976278305054e-01</leafValues></_>
    <_>
      <internalNodes>
        0 -1 77357 -1.6427767695859075e-03</internalNodes>
      <leafValues>
        8.2104429602622986e-02 -8.0766040086746216e-01</leafValues></_>
    <_>
      <internalNodes>
        0 -1 55012 3.8795606815256178e-04</internalNodes>
      <leafValues>
        -1.7228892445564270e-01 4.1629442572593689e-01</leafValues></_>
    <_>
      <internalNodes>
        0 -1 3563 -2.4671602249145508e-01</internalNodes>
      <leafValues>
        5.5765211582183838e-01 -1.0693091899156570e-01</leafValues></_>
    <_>
      <internalNodes>
        0 -1 28132 1.0085359215736389e-02</internalNodes>
      <leafValues>
        -1.0974366962909698e-01 4.9677112698554993e-01</leafValues></_></weakClassifiers></stage1>
</opencv_storage>
