<?xml version="1.0"?>
<opencv_storage>
<stage11>
  <maxWeakCount>85</maxWeakCount>
  <stageThreshold>-9.4645839929580688e-01</stageThreshold>
  <weakClassifiers>
    <_>
      <internalNodes>
        0 -1 7595 4.9385912716388702e-03</internalNodes>
      <leafValues>
        -3.2134830951690674e-01 9.4505496323108673e-02</leafValues></_>
    <_>
      <internalNodes>
        0 -1 67657 5.5337208323180676e-04</internalNodes>
      <leafValues>
        -1.6427208483219147e-01 1.4754305779933929e-01</leafValues></_>
    <_>
      <internalNodes>
        0 -1 17697 -1.3823401927947998e-01</internalNodes>
      <leafValues>
        -1.4304627478122711e-01 1.6390810906887054e-01</leafValues></_>
    <_>
      <internalNodes>
        0 -1 54600 3.1811892986297607e-03</internalNodes>
      <leafValues>
        -1.0818108171224594e-01 2.2704164683818817e-01</leafValues></_>
    <_>
      <internalNodes>
        0 -1 68130 3.9679539622738957e-04</internalNodes>
      <leafValues>
        1.0837150365114212e-01 -2.9699108004570007e-01</leafValues></_>
    <_>
      <internalNodes>
        0 -1 40057 -6.5207900479435921e-03</internalNodes>
      <leafValues>
        2.9659786820411682e-01 -9.5502182841300964e-02</leafValues></_>
    <_>
      <internalNodes>
        0 -1 72826 8.5135712288320065e-04</internalNodes>
      <leafValues>
        1.1073373258113861e-01 -2.9313048720359802e-01</leafValues></_>
    <_>
      <internalNodes>
        0 -1 76361 -1.4863561838865280e-02</internalNodes>
      <leafValues>
        8.4821462631225586e-02 -2.2843828797340393e-01</leafValues></_>
    <_>
      <internalNodes>
        0 -1 70862 1.3997444510459900e-01</internalNodes>
      <leafValues>
        5.9408139437437057e-02 -6.2937790155410767e-01</leafValues></_>
    <_>
      <internalNodes>
        0 -1 46488 -7.7774090459570289e-04</internalNodes>
      <leafValues>
        -2.4839816987514496e-01 8.1483520567417145e-02</leafValues></_>
    <_>
      <internalNodes>
        0 -1 62396 5.1950398832559586e-02</internalNodes>
      <leafValues>
        3.8620468229055405e-02 -5.7908159494400024e-01</leafValues></_>
    <_>
      <internalNodes>
        0 -1 15573 1.6288291662931442e-02</internalNodes>
      <leafValues>
        -4.0682520717382431e-02 8.9311164617538452e-01</leafValues></_>
    <_>
      <internalNodes>
        0 -1 68230 -3.7461071042343974e-04</internalNodes>
      <leafValues>
        -3.3950570225715637e-01 6.8125739693641663e-02</leafValues></_>
    <_>
      <internalNodes>
        0 -1 73456 2.0041391253471375e-03</internalNodes>
      <leafValues>
        -9.5000110566616058e-02 2.5737410783767700e-01</leafValues></_>
    <_>
      <internalNodes>
        0 -1 58575 -1.5631323680281639e-02</internalNodes>
      <leafValues>
        6.3542658090591431e-01 -4.3710336089134216e-02</leafValues></_>
    <_>
      <internalNodes>
        0 -1 50041 1.1284140637144446e-03</internalNodes>
      <leafValues>
        -1.2689824402332306e-01 1.7988391220569611e-01</leafValues></_>
    <_>
      <internalNodes>
        0 -1 50546 -2.1209837868809700e-03</internalNodes>
      <leafValues>
        2.4657845497131348e-01 -7.7909201383590698e-02</leafValues></_>
    <_>
      <internalNodes>
        0 -1 34873 -1.2457584030926228e-02</internalNodes>
      <leafValues>
        3.7804946303367615e-01 -6.6675737500190735e-02</leafValues></_>
    <_>
      <internalNodes>
        0 -1 8066 6.1218224465847015e-02</internalNodes>
      <leafValues>
        6.0351468622684479e-02 -3.9073869585990906e-01</leafValues></_>
    <_>
      <internalNodes>
        0 -1 37450 -2.0707614021375775e-04</internalNodes>
      <leafValues>
        -2.2426590323448181e-01 1.0610540956258774e-01</leafValues></_>
    <_>
      <internalNodes>
        0 -1 48225 -8.7402341887354851e-04</internalNodes>
      <leafValues>
        -3.3733475208282471e-01 6.3877597451210022e-02</leafValues></_>
    <_>
      <internalNodes>
        0 -1 71758 -2.0905819255858660e-03</internalNodes>
      <leafValues>
        2.7478685975074768e-01 -8.6815372109413147e-02</leafValues></_>
    <_>
      <internalNodes>
        0 -1 15367 3.5618010908365250e-02</internalNodes>
      <leafValues>
        3.0570516362786293e-02 -6.4554584026336670e-01</leafValues></_>
    <_>
      <internalNodes>
        0 -1 68533 8.7547153234481812e-03</internalNodes>
      <leafValues>
        3.1231530010700226e-02 -6.2280189990997314e-01</leafValues></_>
    <_>
      <internalNodes>
        0 -1 78371 2.1983115584589541e-04</internalNodes>
      <leafValues>
        -1.2983241677284241e-01 1.7042931914329529e-01</leafValues></_>
    <_>
      <internalNodes>
        0 -1 773 -2.5199218653142452e-03</internalNodes>
      <leafValues>
        1.8120555579662323e-01 -1.2425147742033005e-01</leafValues></_>
    <_>
      <internalNodes>
        0 -1 27799 -1.4273013919591904e-02</internalNodes>
      <leafValues>
        -7.7963715791702271e-01 2.3200629279017448e-02</leafValues></_>
    <_>
      <internalNodes>
        0 -1 8082 -3.0126714706420898e-01</internalNodes>
      <leafValues>
        -6.9826602935791016e-01 2.4463571608066559e-02</leafValues></_>
    <_>
      <internalNodes>
        0 -1 75816 -1.1940344702452421e-03</internalNodes>
      <leafValues>
        -4.9211904406547546e-01 3.2465748488903046e-02</leafValues></_>
    <_>
      <internalNodes>
        0 -1 45217 -7.7820837032049894e-04</internalNodes>
      <leafValues>
        2.0356602966785431e-01 -9.6518598496913910e-02</leafValues></_>
    <_>
      <internalNodes>
        0 -1 45283 1.4811562141403556e-03</internalNodes>
      <leafValues>
        -9.9428445100784302e-02 1.9761356711387634e-01</leafValues></_>
    <_>
      <internalNodes>
        0 -1 45609 -3.4747534990310669e-01</internalNodes>
      <leafValues>
        -7.2403937578201294e-01 2.7358302846550941e-02</leafValues></_>
    <_>
      <internalNodes>
        0 -1 75257 -5.4703410714864731e-03</internalNodes>
      <leafValues>
        1.2390738725662231e-01 -1.4622190594673157e-01</leafValues></_>
    <_>
      <internalNodes>
        0 -1 32393 -1.0935884714126587e-01</internalNodes>
      <leafValues>
        -1.6602045297622681e-01 1.1418217420578003e-01</leafValues></_>
    <_>
      <internalNodes>
        0 -1 26771 -4.9379291012883186e-03</internalNodes>
      <leafValues>
        6.5861687064170837e-02 -3.5308292508125305e-01</leafValues></_>
    <_>
      <internalNodes>
        0 -1 72907 -6.4609027467668056e-03</internalNodes>
      <leafValues>
        3.8564094901084900e-01 -5.0684127956628799e-02</leafValues></_>
    <_>
      <internalNodes>
        0 -1 19550 -3.9521321654319763e-02</internalNodes>
      <leafValues>
        -3.1180690973997116e-02 6.2895113229751587e-01</leafValues></_>
    <_>
      <internalNodes>
        0 -1 77694 -1.2427811510860920e-02</internalNodes>
      <leafValues>
        -7.5014692544937134e-01 2.4019360542297363e-02</leafValues></_>
    <_>
      <internalNodes>
        0 -1 9159 -1.4257836155593395e-02</internalNodes>
      <leafValues>
        2.2741557657718658e-01 -7.9061239957809448e-02</leafValues></_>
    <_>
      <internalNodes>
        0 -1 44788 -2.5394163094460964e-03</internalNodes>
      <leafValues>
        2.3620094358921051e-01 -7.1508318185806274e-02</leafValues></_>
    <_>
      <internalNodes>
        0 -1 54589 4.5412573963403702e-03</internalNodes>
      <leafValues>
        -5.5869176983833313e-02 3.1973013281822205e-01</leafValues></_>
    <_>
      <internalNodes>
        0 -1 54430 5.9780164156109095e-04</internalNodes>
      <leafValues>
        5.2735105156898499e-02 -3.8963219523429871e-01</leafValues></_>
    <_>
      <internalNodes>
        0 -1 39824 -7.3497295379638672e-03</internalNodes>
      <leafValues>
        3.3295848965644836e-01 -5.9965983033180237e-02</leafValues></_>
    <_>
      <internalNodes>
        0 -1 65150 6.9055613130331039e-03</internalNodes>
      <leafValues>
        -1.3513667881488800e-01 1.4096501469612122e-01</leafValues></_>
    <_>
      <internalNodes>
        0 -1 74482 8.4653927478939295e-04</internalNodes>
      <leafValues>
        7.5475960969924927e-02 -2.8034240007400513e-01</leafValues></_>
    <_>
      <internalNodes>
        0 -1 27995 -1.0661331471055746e-03</internalNodes>
      <leafValues>
        3.2938304543495178e-01 -6.0559224337339401e-02</leafValues></_>
    <_>
      <internalNodes>
        0 -1 44930 -1.4652158133685589e-03</internalNodes>
      <leafValues>
        -3.3232006430625916e-01 7.2823002934455872e-02</leafValues></_>
    <_>
      <internalNodes>
        0 -1 1 1.8377580272499472e-04</internalNodes>
      <leafValues>
        -1.1579690873622894e-01 1.7230141162872314e-01</leafValues></_>
    <_>
      <internalNodes>
        0 -1 136 4.6093139098957181e-04</internalNodes>
      <leafValues>
        -1.0010335594415665e-01 2.0055988430976868e-01</leafValues></_>
    <_>
      <internalNodes>
        0 -1 20686 5.1566872745752335e-02</internalNodes>
      <leafValues>
        -2.5997746735811234e-02 7.1709328889846802e-01</leafValues></_>
    <_>
      <internalNodes>
        0 -1 26209 1.2758045922964811e-03</internalNodes>
      <leafValues>
        5.9877168387174606e-02 -3.3906096220016479e-01</leafValues></_>
    <_>
      <internalNodes>
        0 -1 40534 -1.4040689915418625e-02</internalNodes>
      <leafValues>
        1.8044975399971008e-01 -1.1160381883382797e-01</leafValues></_>
    <_>
      <internalNodes>
        0 -1 67821 2.2739949054084718e-04</internalNodes>
      <leafValues>
        1.2058884650468826e-01 -1.7267262935638428e-01</leafValues></_>
    <_>
      <internalNodes>
        0 -1 47475 1.5625631809234619e-01</internalNodes>
      <leafValues>
        -5.3211230784654617e-02 3.7754270434379578e-01</leafValues></_>
    <_>
      <internalNodes>
        0 -1 69820 9.2327641323208809e-03</internalNodes>
      <leafValues>
        3.9441134780645370e-02 -5.9021723270416260e-01</leafValues></_>
    <_>
      <internalNodes>
        0 -1 73477 -2.2914996370673180e-03</internalNodes>
      <leafValues>
        1.4858189038932323e-02 -9.5737040042877197e-01</leafValues></_>
    <_>
      <internalNodes>
        0 -1 4147 -1.3836409896612167e-02</internalNodes>
      <leafValues>
        6.2569779157638550e-01 -3.9266958832740784e-02</leafValues></_>
    <_>
      <internalNodes>
        0 -1 70576 -2.6612792862579226e-04</internalNodes>
      <leafValues>
        -2.2353534400463104e-01 1.0388918966054916e-01</leafValues></_>
    <_>
      <internalNodes>
        0 -1 60385 -2.2399341687560081e-02</internalNodes>
      <leafValues>
        2.9343205690383911e-01 -7.9948879778385162e-02</leafValues></_>
    <_>
      <internalNodes>
        0 -1 48629 4.3390174396336079e-03</internalNodes>
      <leafValues>
        -1.2372264266014099e-01 1.7950776219367981e-01</leafValues></_>
    <_>
      <internalNodes>
        0 -1 13645 8.5338521748781204e-03</internalNodes>
      <leafValues>
        -7.9344578087329865e-02 2.5064858794212341e-01</leafValues></_>
    <_>
      <internalNodes>
        0 -1 34260 4.3906606733798981e-03</internalNodes>
      <leafValues>
        -5.2773017436265945e-02 3.7178260087966919e-01</leafValues></_>
    <_>
      <internalNodes>
        0 -1 14761 -2.7006752789020538e-02</internalNodes>
      <leafValues>
        -9.6165470778942108e-02 2.0779837667942047e-01</leafValues></_>
    <_>
      <internalNodes>
        0 -1 19277 -1.4704242348670959e-02</internalNodes>
      <leafValues>
        2.0944969356060028e-01 -1.0001327097415924e-01</leafValues></_>
    <_>
      <internalNodes>
        0 -1 14514 -1.7917960882186890e-02</internalNodes>
      <leafValues>
        3.8582092523574829e-01 -6.2999352812767029e-02</leafValues></_>
    <_>
      <internalNodes>
        0 -1 49376 -4.4703116873279214e-04</internalNodes>
      <leafValues>
        -2.4599692225456238e-01 8.8485307991504669e-02</leafValues></_>
    <_>
      <internalNodes>
        0 -1 58159 -1.3738513924181461e-02</internalNodes>
      <leafValues>
        4.4099077582359314e-01 -4.8758119344711304e-02</leafValues></_>
    <_>
      <internalNodes>
        0 -1 62245 -1.7331821145489812e-03</internalNodes>
      <leafValues>
        -8.1018513441085815e-01 3.2155320048332214e-02</leafValues></_>
    <_>
      <internalNodes>
        0 -1 62170 8.8798732031136751e-04</internalNodes>
      <leafValues>
        4.4965889304876328e-02 -3.8743618130683899e-01</leafValues></_>
    <_>
      <internalNodes>
        0 -1 42673 1.4525483362376690e-02</internalNodes>
      <leafValues>
        -8.1183306872844696e-02 2.9092133045196533e-01</leafValues></_>
    <_>
      <internalNodes>
        0 -1 42354 -1.2819966673851013e-01</internalNodes>
      <leafValues>
        4.2213302105665207e-02 -6.2584692239761353e-01</leafValues></_>
    <_>
      <internalNodes>
        0 -1 61257 2.6272723334841430e-04</internalNodes>
      <leafValues>
        8.8819824159145355e-02 -2.3059496283531189e-01</leafValues></_>
    <_>
      <internalNodes>
        0 -1 57031 4.6243625693023205e-03</internalNodes>
      <leafValues>
        -1.4005596935749054e-01 1.4447800815105438e-01</leafValues></_>
    <_>
      <internalNodes>
        0 -1 71041 1.5694095054641366e-04</internalNodes>
      <leafValues>
        1.3041642308235168e-01 -1.7756873369216919e-01</leafValues></_>
    <_>
      <internalNodes>
        0 -1 73492 3.4038466401398182e-03</internalNodes>
      <leafValues>
        -6.5478168427944183e-02 3.4640434384346008e-01</leafValues></_>
    <_>
      <internalNodes>
        0 -1 53980 7.6515944674611092e-03</internalNodes>
      <leafValues>
        -1.1937313526868820e-01 1.8015670776367188e-01</leafValues></_>
    <_>
      <internalNodes>
        0 -1 47042 -2.8959516435861588e-02</internalNodes>
      <leafValues>
        -8.9978553354740143e-02 2.6362240314483643e-01</leafValues></_>
    <_>
      <internalNodes>
        0 -1 34199 3.2385817030444741e-04</internalNodes>
      <leafValues>
        -1.3038171827793121e-01 1.5681456029415131e-01</leafValues></_>
    <_>
      <internalNodes>
        0 -1 29867 7.9303439706563950e-03</internalNodes>
      <leafValues>
        -3.6227904260158539e-02 5.4931682348251343e-01</leafValues></_>
    <_>
      <internalNodes>
        0 -1 69976 -2.4420616682618856e-04</internalNodes>
      <leafValues>
        -2.4943450093269348e-01 8.0123230814933777e-02</leafValues></_>
    <_>
      <internalNodes>
        0 -1 68181 9.1964183375239372e-03</internalNodes>
      <leafValues>
        -3.4819152206182480e-02 5.7514613866806030e-01</leafValues></_>
    <_>
      <internalNodes>
        0 -1 19635 -3.0951504595577717e-03</internalNodes>
      <leafValues>
        3.3951003104448318e-02 -6.5033119916915894e-01</leafValues></_>
    <_>
      <internalNodes>
        0 -1 77511 -5.6367209181189537e-03</internalNodes>
      <leafValues>
        -3.6855667829513550e-01 5.0908517092466354e-02</leafValues></_>
    <_>
      <internalNodes>
        0 -1 76089 1.8316754139959812e-03</internalNodes>
      <leafValues>
        -2.4948027729988098e-01 7.7966637909412384e-02</leafValues></_>
    <_>
      <internalNodes>
        0 -1 35275 -2.0665960619226098e-04</internalNodes>
      <leafValues>
        -1.7418648302555084e-01 1.0614704340696335e-01</leafValues></_></weakClassifiers></stage11>
</opencv_storage>
